digraph Tree {
node [shape=box] ;
0 [label="X[3] <= 2.5\ngini = 0.8323\nsamples = 101\nvalue = [17, 18, 17, 14, 17, 18]"] ;
1 [label="X[9] <= 19.5\ngini = 0.7663\nsamples = 52\nvalue = [9, 15, 3, 0, 14, 11]"] ;
0 -> 1 [labeldistance=2.5, labelangle=45, headlabel="True"] ;
2 [label="X[8] <= 2.5\ngini = 0.7694\nsamples = 46\nvalue = [9, 9, 3, 0, 14, 11]"] ;
1 -> 2 ;
3 [label="X[14] <= 0.5\ngini = 0.5714\nsamples = 7\nvalue = [4, 2, 0, 0, 0, 1]"] ;
2 -> 3 ;
4 [label="gini = 0.0\nsamples = 2\nvalue = [0, 2, 0, 0, 0, 0]"] ;
3 -> 4 ;
5 [label="X[9] <= 17.5\ngini = 0.32\nsamples = 5\nvalue = [4, 0, 0, 0, 0, 1]"] ;
3 -> 5 ;
6 [label="gini = 0.0\nsamples = 4\nvalue = [4, 0, 0, 0, 0, 0]"] ;
5 -> 6 ;
7 [label="gini = 0.0\nsamples = 1\nvalue = [0, 0, 0, 0, 0, 1]"] ;
5 -> 7 ;
8 [label="X[10] <= 3.5\ngini = 0.7508\nsamples = 39\nvalue = [5, 7, 3, 0, 14, 10]"] ;
2 -> 8 ;
9 [label="X[1] <= 0.5\ngini = 0.7812\nsamples = 19\nvalue = [4, 6, 3, 0, 3, 3]"] ;
8 -> 9 ;
10 [label="X[14] <= 1.5\ngini = 0.7543\nsamples = 17\nvalue = [4, 6, 1, 0, 3, 3]"] ;
9 -> 10 ;
11 [label="X[13] <= 4.5\ngini = 0.449\nsamples = 7\nvalue = [0, 5, 0, 0, 1, 1]"] ;
10 -> 11 ;
12 [label="X[13] <= 3.5\ngini = 0.2778\nsamples = 6\nvalue = [0, 5, 0, 0, 0, 1]"] ;
11 -> 12 ;
13 [label="gini = 0.0\nsamples = 4\nvalue = [0, 4, 0, 0, 0, 0]"] ;
12 -> 13 ;
14 [label="X[8] <= 4.0\ngini = 0.5\nsamples = 2\nvalue = [0, 1, 0, 0, 0, 1]"] ;
12 -> 14 ;
15 [label="gini = 0.0\nsamples = 1\nvalue = [0, 1, 0, 0, 0, 0]"] ;
14 -> 15 ;
16 [label="gini = 0.0\nsamples = 1\nvalue = [0, 0, 0, 0, 0, 1]"] ;
14 -> 16 ;
17 [label="gini = 0.0\nsamples = 1\nvalue = [0, 0, 0, 0, 1, 0]"] ;
11 -> 17 ;
18 [label="X[12] <= 0.5\ngini = 0.74\nsamples = 10\nvalue = [4, 1, 1, 0, 2, 2]"] ;
10 -> 18 ;
19 [label="X[9] <= 16.5\ngini = 0.375\nsamples = 4\nvalue = [3, 0, 0, 0, 1, 0]"] ;
18 -> 19 ;
20 [label="gini = 0.0\nsamples = 3\nvalue = [3, 0, 0, 0, 0, 0]"] ;
19 -> 20 ;
21 [label="gini = 0.0\nsamples = 1\nvalue = [0, 0, 0, 0, 1, 0]"] ;
19 -> 21 ;
22 [label="X[3] <= 1.5\ngini = 0.7778\nsamples = 6\nvalue = [1, 1, 1, 0, 1, 2]"] ;
18 -> 22 ;
23 [label="X[9] <= 14.5\ngini = 0.4444\nsamples = 3\nvalue = [0, 1, 0, 0, 0, 2]"] ;
22 -> 23 ;
24 [label="gini = 0.0\nsamples = 2\nvalue = [0, 0, 0, 0, 0, 2]"] ;
23 -> 24 ;
25 [label="gini = 0.0\nsamples = 1\nvalue = [0, 1, 0, 0, 0, 0]"] ;
23 -> 25 ;
26 [label="X[0] <= 0.5\ngini = 0.6667\nsamples = 3\nvalue = [1, 0, 1, 0, 1, 0]"] ;
22 -> 26 ;
27 [label="X[9] <= 12.5\ngini = 0.5\nsamples = 2\nvalue = [1, 0, 0, 0, 1, 0]"] ;
26 -> 27 ;
28 [label="gini = 0.0\nsamples = 1\nvalue = [1, 0, 0, 0, 0, 0]"] ;
27 -> 28 ;
29 [label="gini = 0.0\nsamples = 1\nvalue = [0, 0, 0, 0, 1, 0]"] ;
27 -> 29 ;
30 [label="gini = 0.0\nsamples = 1\nvalue = [0, 0, 1, 0, 0, 0]"] ;
26 -> 30 ;
31 [label="gini = 0.0\nsamples = 2\nvalue = [0, 0, 2, 0, 0, 0]"] ;
9 -> 31 ;
32 [label="X[5] <= 1.5\ngini = 0.57\nsamples = 20\nvalue = [1, 1, 0, 0, 11, 7]"] ;
8 -> 32 ;
33 [label="X[0] <= 0.5\ngini = 0.6094\nsamples = 16\nvalue = [1, 1, 0, 0, 7, 7]"] ;
32 -> 33 ;
34 [label="X[13] <= 2.5\ngini = 0.56\nsamples = 15\nvalue = [1, 0, 0, 0, 7, 7]"] ;
33 -> 34 ;
35 [label="gini = 0.0\nsamples = 2\nvalue = [0, 0, 0, 0, 2, 0]"] ;
34 -> 35 ;
36 [label="X[3] <= 0.5\ngini = 0.5562\nsamples = 13\nvalue = [1, 0, 0, 0, 5, 7]"] ;
34 -> 36 ;
37 [label="gini = 0.0\nsamples = 2\nvalue = [0, 0, 0, 0, 2, 0]"] ;
36 -> 37 ;
38 [label="X[8] <= 4.5\ngini = 0.5124\nsamples = 11\nvalue = [1, 0, 0, 0, 3, 7]"] ;
36 -> 38 ;
39 [label="X[4] <= 2.5\ngini = 0.46\nsamples = 10\nvalue = [1, 0, 0, 0, 2, 7]"] ;
38 -> 39 ;
40 [label="gini = 0.0\nsamples = 1\nvalue = [0, 0, 0, 0, 1, 0]"] ;
39 -> 40 ;
41 [label="X[8] <= 3.5\ngini = 0.3704\nsamples = 9\nvalue = [1, 0, 0, 0, 1, 7]"] ;
39 -> 41 ;
42 [label="X[14] <= 0.5\ngini = 0.625\nsamples = 4\nvalue = [1, 0, 0, 0, 1, 2]"] ;
41 -> 42 ;
43 [label="gini = 0.0\nsamples = 2\nvalue = [0, 0, 0, 0, 0, 2]"] ;
42 -> 43 ;
44 [label="X[14] <= 1.5\ngini = 0.5\nsamples = 2\nvalue = [1, 0, 0, 0, 1, 0]"] ;
42 -> 44 ;
45 [label="gini = 0.0\nsamples = 1\nvalue = [0, 0, 0, 0, 1, 0]"] ;
44 -> 45 ;
46 [label="gini = 0.0\nsamples = 1\nvalue = [1, 0, 0, 0, 0, 0]"] ;
44 -> 46 ;
47 [label="gini = 0.0\nsamples = 5\nvalue = [0, 0, 0, 0, 0, 5]"] ;
41 -> 47 ;
48 [label="gini = 0.0\nsamples = 1\nvalue = [0, 0, 0, 0, 1, 0]"] ;
38 -> 48 ;
49 [label="gini = 0.0\nsamples = 1\nvalue = [0, 1, 0, 0, 0, 0]"] ;
33 -> 49 ;
50 [label="gini = 0.0\nsamples = 4\nvalue = [0, 0, 0, 0, 4, 0]"] ;
32 -> 50 ;
51 [label="gini = 0.0\nsamples = 6\nvalue = [0, 6, 0, 0, 0, 0]"] ;
1 -> 51 ;
52 [label="X[14] <= 2.5\ngini = 0.7822\nsamples = 49\nvalue = [8, 3, 14, 14, 3, 7]"] ;
0 -> 52 [labeldistance=2.5, labelangle=-45, headlabel="False"] ;
53 [label="X[5] <= 1.5\ngini = 0.7383\nsamples = 32\nvalue = [1, 2, 13, 7, 3, 6]"] ;
52 -> 53 ;
54 [label="X[9] <= 11.0\ngini = 0.7008\nsamples = 25\nvalue = [1, 2, 12, 2, 3, 5]"] ;
53 -> 54 ;
55 [label="X[6] <= 0.5\ngini = 0.5\nsamples = 12\nvalue = [0, 0, 8, 2, 2, 0]"] ;
54 -> 55 ;
56 [label="X[10] <= 5.0\ngini = 0.32\nsamples = 10\nvalue = [0, 0, 8, 0, 2, 0]"] ;
55 -> 56 ;
57 [label="X[13] <= 4.5\ngini = 0.1975\nsamples = 9\nvalue = [0, 0, 8, 0, 1, 0]"] ;
56 -> 57 ;
58 [label="gini = 0.0\nsamples = 7\nvalue = [0, 0, 7, 0, 0, 0]"] ;
57 -> 58 ;
59 [label="X[3] <= 3.5\ngini = 0.5\nsamples = 2\nvalue = [0, 0, 1, 0, 1, 0]"] ;
57 -> 59 ;
60 [label="gini = 0.0\nsamples = 1\nvalue = [0, 0, 0, 0, 1, 0]"] ;
59 -> 60 ;
61 [label="gini = 0.0\nsamples = 1\nvalue = [0, 0, 1, 0, 0, 0]"] ;
59 -> 61 ;
62 [label="gini = 0.0\nsamples = 1\nvalue = [0, 0, 0, 0, 1, 0]"] ;
56 -> 62 ;
63 [label="gini = 0.0\nsamples = 2\nvalue = [0, 0, 0, 2, 0, 0]"] ;
55 -> 63 ;
64 [label="X[17] <= 0.5\ngini = 0.7219\nsamples = 13\nvalue = [1, 2, 4, 0, 1, 5]"] ;
54 -> 64 ;
65 [label="X[14] <= 1.5\ngini = 0.6562\nsamples = 8\nvalue = [1, 2, 0, 0, 1, 4]"] ;
64 -> 65 ;
66 [label="X[4] <= 5.0\ngini = 0.4444\nsamples = 6\nvalue = [0, 2, 0, 0, 0, 4]"] ;
65 -> 66 ;
67 [label="X[9] <= 14.5\ngini = 0.32\nsamples = 5\nvalue = [0, 1, 0, 0, 0, 4]"] ;
66 -> 67 ;
68 [label="gini = 0.0\nsamples = 3\nvalue = [0, 0, 0, 0, 0, 3]"] ;
67 -> 68 ;
69 [label="X[4] <= 2.5\ngini = 0.5\nsamples = 2\nvalue = [0, 1, 0, 0, 0, 1]"] ;
67 -> 69 ;
70 [label="gini = 0.0\nsamples = 1\nvalue = [0, 0, 0, 0, 0, 1]"] ;
69 -> 70 ;
71 [label="gini = 0.0\nsamples = 1\nvalue = [0, 1, 0, 0, 0, 0]"] ;
69 -> 71 ;
72 [label="gini = 0.0\nsamples = 1\nvalue = [0, 1, 0, 0, 0, 0]"] ;
66 -> 72 ;
73 [label="X[11] <= 0.5\ngini = 0.5\nsamples = 2\nvalue = [1, 0, 0, 0, 1, 0]"] ;
65 -> 73 ;
74 [label="gini = 0.0\nsamples = 1\nvalue = [1, 0, 0, 0, 0, 0]"] ;
73 -> 74 ;
75 [label="gini = 0.0\nsamples = 1\nvalue = [0, 0, 0, 0, 1, 0]"] ;
73 -> 75 ;
76 [label="X[10] <= 3.5\ngini = 0.32\nsamples = 5\nvalue = [0, 0, 4, 0, 0, 1]"] ;
64 -> 76 ;
77 [label="gini = 0.0\nsamples = 4\nvalue = [0, 0, 4, 0, 0, 0]"] ;
76 -> 77 ;
78 [label="gini = 0.0\nsamples = 1\nvalue = [0, 0, 0, 0, 0, 1]"] ;
76 -> 78 ;
79 [label="X[9] <= 13.0\ngini = 0.449\nsamples = 7\nvalue = [0, 0, 1, 5, 0, 1]"] ;
53 -> 79 ;
80 [label="X[8] <= 4.5\ngini = 0.2778\nsamples = 6\nvalue = [0, 0, 0, 5, 0, 1]"] ;
79 -> 80 ;
81 [label="gini = 0.0\nsamples = 5\nvalue = [0, 0, 0, 5, 0, 0]"] ;
80 -> 81 ;
82 [label="gini = 0.0\nsamples = 1\nvalue = [0, 0, 0, 0, 0, 1]"] ;
80 -> 82 ;
83 [label="gini = 0.0\nsamples = 1\nvalue = [0, 0, 1, 0, 0, 0]"] ;
79 -> 83 ;
84 [label="X[9] <= 6.5\ngini = 0.6505\nsamples = 17\nvalue = [7, 1, 1, 7, 0, 1]"] ;
52 -> 84 ;
85 [label="X[9] <= 4.5\ngini = 0.375\nsamples = 8\nvalue = [2, 0, 0, 6, 0, 0]"] ;
84 -> 85 ;
86 [label="X[15] <= 0.5\ngini = 0.4444\nsamples = 3\nvalue = [2, 0, 0, 1, 0, 0]"] ;
85 -> 86 ;
87 [label="gini = 0.0\nsamples = 2\nvalue = [2, 0, 0, 0, 0, 0]"] ;
86 -> 87 ;
88 [label="gini = 0.0\nsamples = 1\nvalue = [0, 0, 0, 1, 0, 0]"] ;
86 -> 88 ;
89 [label="gini = 0.0\nsamples = 5\nvalue = [0, 0, 0, 5, 0, 0]"] ;
85 -> 89 ;
90 [label="X[8] <= 3.5\ngini = 0.642\nsamples = 9\nvalue = [5, 1, 1, 1, 0, 1]"] ;
84 -> 90 ;
91 [label="X[3] <= 3.5\ngini = 0.2778\nsamples = 6\nvalue = [5, 0, 0, 0, 0, 1]"] ;
90 -> 91 ;
92 [label="X[13] <= 2.0\ngini = 0.5\nsamples = 2\nvalue = [1, 0, 0, 0, 0, 1]"] ;
91 -> 92 ;
93 [label="gini = 0.0\nsamples = 1\nvalue = [1, 0, 0, 0, 0, 0]"] ;
92 -> 93 ;
94 [label="gini = 0.0\nsamples = 1\nvalue = [0, 0, 0, 0, 0, 1]"] ;
92 -> 94 ;
95 [label="gini = 0.0\nsamples = 4\nvalue = [4, 0, 0, 0, 0, 0]"] ;
91 -> 95 ;
96 [label="X[10] <= 2.5\ngini = 0.6667\nsamples = 3\nvalue = [0, 1, 1, 1, 0, 0]"] ;
90 -> 96 ;
97 [label="X[5] <= 1.0\ngini = 0.5\nsamples = 2\nvalue = [0, 0, 1, 1, 0, 0]"] ;
96 -> 97 ;
98 [label="gini = 0.0\nsamples = 1\nvalue = [0, 0, 0, 1, 0, 0]"] ;
97 -> 98 ;
99 [label="gini = 0.0\nsamples = 1\nvalue = [0, 0, 1, 0, 0, 0]"] ;
97 -> 99 ;
100 [label="gini = 0.0\nsamples = 1\nvalue = [0, 1, 0, 0, 0, 0]"] ;
96 -> 100 ;
}
